([9, 18, 1], [array([[-1.54129892, -1.94671625, -0.04639869,  0.69594849, -1.21089663,
         0.33469309,  0.96274714,  0.19167712,  0.07360858],
       [ 1.27629915, -0.05504636,  1.52712219,  0.05171042, -0.54574173,
        -0.99974326, -0.04038336,  0.61983885, -0.23089747],
       [ 0.10312922, -0.2375483 , -1.83232019,  0.7722634 , -1.39752487,
         0.14020696,  1.30082704,  0.20018134, -0.74350156],
       [ 0.79366303, -0.32247507, -0.59052931,  1.23862354,  0.68427839,
         3.17213291, -0.94993556,  0.02972235,  0.47932268],
       [ 7.06904806, -0.08791597, -0.06132424, -0.1561077 ,  0.0282325 ,
         0.0460054 ,  0.02212841,  2.56021494,  0.15707038],
       [-0.79562834,  1.09645442,  1.3559376 ,  1.52588364, -1.30626588,
        -1.16530683,  2.03133212,  0.4851802 ,  0.47425536],
       [-1.24121969, -0.12590163,  0.20137262, -0.58078115,  0.83813391,
        -0.98797428, -0.13774706, -0.82644419,  1.05546224],
       [-1.05957492,  1.52558787, -1.61896545,  0.87236753, -1.39049666,
        -1.83119075,  0.4925405 ,  0.48830327, -0.98889972],
       [-1.33557403, -2.31260871, -0.55059831,  0.25242933, -2.11426697,
         0.52897099,  1.47180773, -1.78412839,  0.53453483],
       [ 1.34728071,  0.01058976,  0.52586578,  0.66578042, -0.19803643,
         1.75255934, -0.52437793, -1.19268888, -1.98188816],
       [ 4.54606765,  0.62275216, -1.10916948,  0.51317092,  0.13213591,
        -0.18475737,  0.37088594, -0.29444749, -2.87599835],
       [ 1.07717322, -0.81305429,  0.89336149,  0.55915818, -1.11020866,
        -0.8761506 , -1.29831628,  1.68372623,  1.28826381],
       [-0.40560853, -1.40441198,  0.40616346,  0.1397154 ,  0.33350219,
         0.41900902,  0.96940004, -0.27914187,  0.57932905],
       [-1.11901042,  0.31291408,  0.11151405,  1.41771624, -0.46233544,
        -0.13459652, -0.06942439,  0.43585515, -0.08843902],
       [ 2.28531219,  1.18007318, -0.59861483, -0.49756665, -2.36807947,
        -0.7912955 ,  0.03300644,  0.66473161, -0.22867522],
       [-0.33087905, -1.49101138,  0.01523245,  1.73027981, -0.17725662,
        -2.1654681 ,  0.86039407,  0.55586851,  2.66793541],
       [-0.58840918,  0.80827194,  0.41666092, -1.51401301, -0.35615696,
        -0.09839163, -0.97060132,  1.23752145, -0.3469644 ],
       [-0.12908766, -0.15709798,  0.49253272,  0.49686023, -2.28465635,
        -0.24435468,  0.11160129, -0.19614141,  1.76765209]]), array([[ 1.3535707 , -1.3996061 ,  1.32435191,  0.41979325, -4.28077123,
         1.71833558,  1.93911956, -0.08106596, -1.1963534 , -1.24197223,
        -2.99170626, -1.57246554, -0.04747126,  1.52666027,  2.99316418,
        -1.58514144, -0.94957337,  0.50187543]])], [array([[ 1.49633919],
       [ 1.2941101 ],
       [-2.07019268],
       [-0.99530796],
       [-2.45861461],
       [ 0.41274611],
       [ 1.04310824],
       [ 0.69929572],
       [ 0.26859219],
       [-0.97134299],
       [-1.55439108],
       [ 1.74545476],
       [ 0.30980587],
       [-1.28609555],
       [ 0.70664126],
       [ 0.71818348],
       [ 0.77743084],
       [ 1.87281039]]), array([[-0.21861222]])])