([9, 18, 1], [array([[-2.07304973e+00,  1.08867586e+00, -3.42694865e+00,
         1.38969045e+00, -3.41625724e+00, -2.08361794e+00,
        -4.71961265e+00,  7.99769921e-01, -2.67378685e+00],
       [ 6.07821151e-01,  4.51505713e-01, -3.17113847e+00,
        -2.61391170e+00, -3.36619401e+00, -3.89678900e+00,
        -8.61350954e+00,  2.16160142e+00, -1.27330884e+00],
       [ 8.24309434e+00, -4.16595847e+00, -3.92752009e+00,
        -6.91131643e+00, -5.28714871e+00, -6.98052266e-01,
        -2.00907369e-01,  5.26593859e+00,  1.25959352e+00],
       [ 5.60120219e+00,  4.93722117e+00, -6.33375362e+00,
        -4.49422862e+00, -9.28729835e+00, -3.40967061e+00,
         2.62419100e+00,  6.24864552e+00,  3.89477019e+00],
       [ 1.58798509e+01, -3.61144583e+00,  5.95752478e-01,
        -1.78267335e+00, -1.80451342e+01, -1.92120932e+00,
        -2.55981093e+00,  4.52308581e+00,  7.29987496e-01],
       [ 2.32057522e+00,  6.16226251e-01, -4.56544755e+00,
         2.82360283e-03, -5.46683790e+00, -6.90988243e+00,
        -4.76026497e+00,  7.22648969e+00, -4.30117578e+00],
       [-1.82178890e+00,  5.89353418e-01, -1.81673086e+00,
        -3.05288957e+00, -1.00589459e+00, -5.29316364e+00,
        -8.46928817e+00,  1.30653368e+00, -3.95674730e-01],
       [ 1.70493271e+01,  2.13226042e+00, -3.17895755e-01,
        -1.82491606e+00, -2.14684022e+01, -3.46857806e+00,
        -6.84506077e-01, -6.85309590e+00, -4.14853538e-01],
       [-1.67614892e+00, -1.01681890e+00, -3.10948108e+00,
        -7.44549106e-01, -2.92532600e+00, -9.12527787e-01,
        -2.11082200e+00, -1.11753019e+00,  2.03674641e-02],
       [ 2.83336933e-01, -2.74766684e-01, -1.56712110e+01,
        -4.64562437e+00, -5.95291242e+00, -2.77071730e+00,
        -5.01573474e+00,  1.63453253e+00, -1.82425891e+00],
       [ 5.61307478e+00,  4.26242633e+00, -3.86412386e+00,
        -4.90736961e+00, -7.91896728e+00, -1.42945580e+00,
        -4.73833867e+00,  3.21683571e+00,  2.10690279e+00],
       [ 1.03339065e+01,  2.59856734e+00, -3.95396963e-01,
         6.84927487e-01, -1.01043195e+01, -4.97105473e+00,
        -7.34234123e+00, -2.25475996e+00,  5.13703918e+00],
       [-1.68098008e+00, -2.29193412e+00, -1.82903801e+01,
        -5.80841698e+00, -8.27523666e+00, -4.00599923e+00,
        -1.92339597e+00,  2.39579175e+00,  1.34909379e+00],
       [-7.26643493e+00,  5.32497200e+00, -1.29383124e+00,
         3.46423350e+00,  4.83041294e+00,  6.42463064e-01,
         1.84066875e+00, -4.14981404e+00, -2.74333102e+00],
       [ 7.22217008e+00,  1.89538301e+00, -3.38550042e+00,
        -3.68181223e+00, -5.10683620e+00, -3.08740023e+00,
        -2.82359300e+00, -2.13229976e+00,  2.00008932e+00],
       [-7.13260969e-01, -3.18139111e+00, -1.64627919e+00,
        -4.03206920e+00, -2.95478331e+00, -3.80793202e+00,
        -1.95225193e+00,  2.26279082e+00,  7.08846838e-01],
       [ 3.67126800e+00,  4.46578288e+00, -5.94741367e+00,
        -6.50661974e+00, -1.83783948e+01,  1.85066134e+00,
         1.18902900e-02, -1.25131780e+00,  9.04807422e-01],
       [ 7.24898261e+00, -6.67838227e-01, -1.40389608e+00,
         1.09585455e+00, -1.77573300e+01, -9.42766792e+00,
        -1.19977507e+01, -3.15421834e+00, -1.80924059e+00]]), array([[-3.03783144,  0.72518572, -4.59370048, -5.68008754, -6.35263454,
         2.77729073,  1.78250383, -6.03350385,  0.50650458, -0.41691312,
        -5.72158371, -5.3798694 ,  3.43534436,  1.28281043,  7.19288782,
         6.2267588 , -1.94261481, -5.32063606]])], [array([[ 3.58737156],
       [-0.14751369],
       [ 3.56097288],
       [-2.76172953],
       [-6.53930816],
       [ 2.54596545],
       [-0.13203827],
       [-7.80335627],
       [-0.9541967 ],
       [-3.82351389],
       [-4.29585757],
       [-0.44555844],
       [-3.35359171],
       [-4.42317515],
       [-0.19735996],
       [ 0.55964613],
       [-4.6742986 ],
       [-2.64587277]]), array([[-1.29446167]])])